digraph Tree {
node [shape=box, fontname="helvetica"] ;
edge [fontname="helvetica"] ;
0 [label="Cbal <= 1.5\ngini = 0.422\nsamples = 900\nvalue = [272, 628]\nclass = bad"] ;
1 [label="Sbal <= 2.5\ngini = 0.493\nsamples = 494\nvalue = [217, 277]\nclass = bad"] ;
0 -> 1 [labeldistance=2.5, labelangle=45, headlabel="True"] ;
2 [label="Chist <= 2.5\ngini = 0.499\nsamples = 410\nvalue = [195, 215]\nclass = bad"] ;
1 -> 2 ;
3 [label="Chist <= 1.5\ngini = 0.496\nsamples = 381\nvalue = [173, 208]\nclass = bad"] ;
2 -> 3 ;
4 [label="Chist <= 0.5\ngini = 0.5\nsamples = 283\nvalue = [143, 140]\nclass = good"] ;
3 -> 4 ;
5 [label="age <= 23.5\ngini = 0.428\nsamples = 29\nvalue = [20, 9]\nclass = good"] ;
4 -> 5 ;
6 [label="gini = 0.0\nsamples = 4\nvalue = [0, 4]\nclass = bad"] ;
5 -> 6 ;
7 [label="age <= 29.5\ngini = 0.32\nsamples = 25\nvalue = [20, 5]\nclass = good"] ;
5 -> 7 ;
8 [label="gini = 0.0\nsamples = 7\nvalue = [7, 0]\nclass = good"] ;
7 -> 8 ;
9 [label="age <= 57.0\ngini = 0.401\nsamples = 18\nvalue = [13, 5]\nclass = good"] ;
7 -> 9 ;
10 [label="age <= 35.5\ngini = 0.444\nsamples = 15\nvalue = [10, 5]\nclass = good"] ;
9 -> 10 ;
11 [label="Sbal <= 0.5\ngini = 0.32\nsamples = 10\nvalue = [8, 2]\nclass = good"] ;
10 -> 11 ;
12 [label="Cbal <= 0.5\ngini = 0.5\nsamples = 4\nvalue = [2, 2]\nclass = good"] ;
11 -> 12 ;
13 [label="gini = 0.0\nsamples = 1\nvalue = [0, 1]\nclass = bad"] ;
12 -> 13 ;
14 [label="age <= 31.0\ngini = 0.444\nsamples = 3\nvalue = [2, 1]\nclass = good"] ;
12 -> 14 ;
15 [label="gini = 0.0\nsamples = 1\nvalue = [0, 1]\nclass = bad"] ;
14 -> 15 ;
16 [label="gini = 0.0\nsamples = 2\nvalue = [2, 0]\nclass = good"] ;
14 -> 16 ;
17 [label="gini = 0.0\nsamples = 6\nvalue = [6, 0]\nclass = good"] ;
11 -> 17 ;
18 [label="age <= 36.5\ngini = 0.48\nsamples = 5\nvalue = [2, 3]\nclass = bad"] ;
10 -> 18 ;
19 [label="gini = 0.0\nsamples = 1\nvalue = [0, 1]\nclass = bad"] ;
18 -> 19 ;
20 [label="Cbal <= 0.5\ngini = 0.5\nsamples = 4\nvalue = [2, 2]\nclass = good"] ;
18 -> 20 ;
21 [label="age <= 41.0\ngini = 0.444\nsamples = 3\nvalue = [2, 1]\nclass = good"] ;
20 -> 21 ;
22 [label="gini = 0.0\nsamples = 1\nvalue = [1, 0]\nclass = good"] ;
21 -> 22 ;
23 [label="age <= 45.5\ngini = 0.5\nsamples = 2\nvalue = [1, 1]\nclass = good"] ;
21 -> 23 ;
24 [label="gini = 0.0\nsamples = 1\nvalue = [0, 1]\nclass = bad"] ;
23 -> 24 ;
25 [label="gini = 0.0\nsamples = 1\nvalue = [1, 0]\nclass = good"] ;
23 -> 25 ;
26 [label="gini = 0.0\nsamples = 1\nvalue = [0, 1]\nclass = bad"] ;
20 -> 26 ;
27 [label="gini = 0.0\nsamples = 3\nvalue = [3, 0]\nclass = good"] ;
9 -> 27 ;
28 [label="Cbal <= 0.5\ngini = 0.5\nsamples = 254\nvalue = [123, 131]\nclass = bad"] ;
4 -> 28 ;
29 [label="age <= 34.5\ngini = 0.495\nsamples = 135\nvalue = [74, 61]\nclass = good"] ;
28 -> 29 ;
30 [label="age <= 30.5\ngini = 0.479\nsamples = 83\nvalue = [50.0, 33.0]\nclass = good"] ;
29 -> 30 ;
31 [label="age <= 26.5\ngini = 0.497\nsamples = 69\nvalue = [37, 32]\nclass = good"] ;
30 -> 31 ;
32 [label="age <= 20.5\ngini = 0.463\nsamples = 44\nvalue = [28, 16]\nclass = good"] ;
31 -> 32 ;
33 [label="gini = 0.0\nsamples = 3\nvalue = [3, 0]\nclass = good"] ;
32 -> 33 ;
34 [label="age <= 22.5\ngini = 0.476\nsamples = 41\nvalue = [25, 16]\nclass = good"] ;
32 -> 34 ;
35 [label="Sbal <= 1.0\ngini = 0.486\nsamples = 12\nvalue = [5, 7]\nclass = bad"] ;
34 -> 35 ;
36 [label="gini = 0.0\nsamples = 1\nvalue = [1, 0]\nclass = good"] ;
35 -> 36 ;
37 [label="age <= 21.5\ngini = 0.463\nsamples = 11\nvalue = [4, 7]\nclass = bad"] ;
35 -> 37 ;
38 [label="gini = 0.5\nsamples = 4\nvalue = [2, 2]\nclass = good"] ;
37 -> 38 ;
39 [label="gini = 0.408\nsamples = 7\nvalue = [2, 5]\nclass = bad"] ;
37 -> 39 ;
40 [label="Sbal <= 1.5\ngini = 0.428\nsamples = 29\nvalue = [20, 9]\nclass = good"] ;
34 -> 40 ;
41 [label="gini = 0.0\nsamples = 1\nvalue = [0, 1]\nclass = bad"] ;
40 -> 41 ;
42 [label="age <= 23.5\ngini = 0.408\nsamples = 28\nvalue = [20, 8]\nclass = good"] ;
40 -> 42 ;
43 [label="gini = 0.346\nsamples = 9\nvalue = [7, 2]\nclass = good"] ;
42 -> 43 ;
44 [label="age <= 24.5\ngini = 0.432\nsamples = 19\nvalue = [13, 6]\nclass = good"] ;
42 -> 44 ;
45 [label="gini = 0.444\nsamples = 9\nvalue = [6, 3]\nclass = good"] ;
44 -> 45 ;
46 [label="age <= 25.5\ngini = 0.42\nsamples = 10\nvalue = [7, 3]\nclass = good"] ;
44 -> 46 ;
47 [label="gini = 0.375\nsamples = 4\nvalue = [3, 1]\nclass = good"] ;
46 -> 47 ;
48 [label="gini = 0.444\nsamples = 6\nvalue = [4, 2]\nclass = good"] ;
46 -> 48 ;
49 [label="age <= 28.5\ngini = 0.461\nsamples = 25\nvalue = [9, 16]\nclass = bad"] ;
31 -> 49 ;
50 [label="age <= 27.5\ngini = 0.391\nsamples = 15\nvalue = [4, 11]\nclass = bad"] ;
49 -> 50 ;
51 [label="gini = 0.42\nsamples = 10\nvalue = [3, 7]\nclass = bad"] ;
50 -> 51 ;
52 [label="gini = 0.32\nsamples = 5\nvalue = [1, 4]\nclass = bad"] ;
50 -> 52 ;
53 [label="age <= 29.5\ngini = 0.5\nsamples = 10\nvalue = [5, 5]\nclass = good"] ;
49 -> 53 ;
54 [label="gini = 0.444\nsamples = 6\nvalue = [4, 2]\nclass = good"] ;
53 -> 54 ;
55 [label="Sbal <= 1.0\ngini = 0.375\nsamples = 4\nvalue = [1, 3]\nclass = bad"] ;
53 -> 55 ;
56 [label="gini = 0.0\nsamples = 1\nvalue = [0, 1]\nclass = bad"] ;
55 -> 56 ;
57 [label="gini = 0.444\nsamples = 3\nvalue = [1, 2]\nclass = bad"] ;
55 -> 57 ;
58 [label="age <= 33.5\ngini = 0.133\nsamples = 14\nvalue = [13, 1]\nclass = good"] ;
30 -> 58 ;
59 [label="gini = 0.0\nsamples = 9\nvalue = [9, 0]\nclass = good"] ;
58 -> 59 ;
60 [label="gini = 0.32\nsamples = 5\nvalue = [4, 1]\nclass = good"] ;
58 -> 60 ;
61 [label="Sbal <= 1.5\ngini = 0.497\nsamples = 52\nvalue = [24, 28]\nclass = bad"] ;
29 -> 61 ;
62 [label="gini = 0.0\nsamples = 3\nvalue = [0, 3]\nclass = bad"] ;
61 -> 62 ;
63 [label="age <= 64.5\ngini = 0.5\nsamples = 49\nvalue = [24, 25]\nclass = bad"] ;
61 -> 63 ;
64 [label="age <= 57.5\ngini = 0.498\nsamples = 47\nvalue = [22, 25]\nclass = bad"] ;
63 -> 64 ;
65 [label="age <= 56.0\ngini = 0.5\nsamples = 43\nvalue = [22, 21]\nclass = good"] ;
64 -> 65 ;
66 [label="age <= 54.5\ngini = 0.5\nsamples = 42\nvalue = [21, 21]\nclass = good"] ;
65 -> 66 ;
67 [label="age <= 52.5\ngini = 0.499\nsamples = 40\nvalue = [21, 19]\nclass = good"] ;
66 -> 67 ;
68 [label="age <= 48.5\ngini = 0.5\nsamples = 37\nvalue = [18, 19]\nclass = bad"] ;
67 -> 68 ;
69 [label="age <= 46.5\ngini = 0.498\nsamples = 34\nvalue = [18, 16]\nclass = good"] ;
68 -> 69 ;
70 [label="age <= 35.5\ngini = 0.5\nsamples = 32\nvalue = [16, 16]\nclass = good"] ;
69 -> 70 ;
71 [label="gini = 0.444\nsamples = 3\nvalue = [2, 1]\nclass = good"] ;
70 -> 71 ;
72 [label="age <= 44.0\ngini = 0.499\nsamples = 29\nvalue = [14.0, 15.0]\nclass = bad"] ;
70 -> 72 ;
73 [label="age <= 42.5\ngini = 0.497\nsamples = 24\nvalue = [11, 13]\nclass = bad"] ;
72 -> 73 ;
74 [label="age <= 41.5\ngini = 0.499\nsamples = 21\nvalue = [10, 11]\nclass = bad"] ;
73 -> 74 ;
75 [label="age <= 37.5\ngini = 0.492\nsamples = 16\nvalue = [7, 9]\nclass = bad"] ;
74 -> 75 ;
76 [label="age <= 36.5\ngini = 0.5\nsamples = 6\nvalue = [3, 3]\nclass = good"] ;
75 -> 76 ;
77 [label="gini = 0.5\nsamples = 4\nvalue = [2, 2]\nclass = good"] ;
76 -> 77 ;
78 [label="gini = 0.5\nsamples = 2\nvalue = [1, 1]\nclass = good"] ;
76 -> 78 ;
79 [label="age <= 38.5\ngini = 0.48\nsamples = 10\nvalue = [4, 6]\nclass = bad"] ;
75 -> 79 ;
80 [label="gini = 0.0\nsamples = 1\nvalue = [0, 1]\nclass = bad"] ;
79 -> 80 ;
81 [label="age <= 39.5\ngini = 0.494\nsamples = 9\nvalue = [4, 5]\nclass = bad"] ;
79 -> 81 ;
82 [label="gini = 0.5\nsamples = 4\nvalue = [2, 2]\nclass = good"] ;
81 -> 82 ;
83 [label="age <= 40.5\ngini = 0.48\nsamples = 5\nvalue = [2, 3]\nclass = bad"] ;
81 -> 83 ;
84 [label="gini = 0.444\nsamples = 3\nvalue = [1, 2]\nclass = bad"] ;
83 -> 84 ;
85 [label="gini = 0.5\nsamples = 2\nvalue = [1, 1]\nclass = good"] ;
83 -> 85 ;
86 [label="gini = 0.48\nsamples = 5\nvalue = [3, 2]\nclass = good"] ;
74 -> 86 ;
87 [label="gini = 0.444\nsamples = 3\nvalue = [1, 2]\nclass = bad"] ;
73 -> 87 ;
88 [label="age <= 45.5\ngini = 0.48\nsamples = 5\nvalue = [3, 2]\nclass = good"] ;
72 -> 88 ;
89 [label="gini = 0.444\nsamples = 3\nvalue = [2, 1]\nclass = good"] ;
88 -> 89 ;
90 [label="gini = 0.5\nsamples = 2\nvalue = [1, 1]\nclass = good"] ;
88 -> 90 ;
91 [label="gini = 0.0\nsamples = 2\nvalue = [2, 0]\nclass = good"] ;
69 -> 91 ;
92 [label="gini = 0.0\nsamples = 3\nvalue = [0, 3]\nclass = bad"] ;
68 -> 92 ;
93 [label="gini = 0.0\nsamples = 3\nvalue = [3, 0]\nclass = good"] ;
67 -> 93 ;
94 [label="gini = 0.0\nsamples = 2\nvalue = [0, 2]\nclass = bad"] ;
66 -> 94 ;
95 [label="gini = 0.0\nsamples = 1\nvalue = [1, 0]\nclass = good"] ;
65 -> 95 ;
96 [label="gini = 0.0\nsamples = 4\nvalue = [0, 4]\nclass = bad"] ;
64 -> 96 ;
97 [label="gini = 0.0\nsamples = 2\nvalue = [2, 0]\nclass = good"] ;
63 -> 97 ;
98 [label="age <= 39.5\ngini = 0.484\nsamples = 119\nvalue = [49, 70]\nclass = bad"] ;
28 -> 98 ;
99 [label="age <= 29.5\ngini = 0.466\nsamples = 92\nvalue = [34, 58]\nclass = bad"] ;
98 -> 99 ;
100 [label="Sbal <= 0.5\ngini = 0.496\nsamples = 55\nvalue = [25.0, 30.0]\nclass = bad"] ;
99 -> 100 ;
101 [label="age <= 23.5\ngini = 0.48\nsamples = 10\nvalue = [6, 4]\nclass = good"] ;
100 -> 101 ;
102 [label="age <= 22.5\ngini = 0.48\nsamples = 5\nvalue = [2, 3]\nclass = bad"] ;
101 -> 102 ;
103 [label="age <= 21.5\ngini = 0.444\nsamples = 3\nvalue = [2, 1]\nclass = good"] ;
102 -> 103 ;
104 [label="gini = 0.0\nsamples = 1\nvalue = [1, 0]\nclass = good"] ;
103 -> 104 ;
105 [label="gini = 0.5\nsamples = 2\nvalue = [1, 1]\nclass = good"] ;
103 -> 105 ;
106 [label="gini = 0.0\nsamples = 2\nvalue = [0, 2]\nclass = bad"] ;
102 -> 106 ;
107 [label="age <= 24.5\ngini = 0.32\nsamples = 5\nvalue = [4, 1]\nclass = good"] ;
101 -> 107 ;
108 [label="gini = 0.0\nsamples = 2\nvalue = [2, 0]\nclass = good"] ;
107 -> 108 ;
109 [label="age <= 26.0\ngini = 0.444\nsamples = 3\nvalue = [2, 1]\nclass = good"] ;
107 -> 109 ;
110 [label="gini = 0.0\nsamples = 1\nvalue = [0, 1]\nclass = bad"] ;
109 -> 110 ;
111 [label="gini = 0.0\nsamples = 2\nvalue = [2, 0]\nclass = good"] ;
109 -> 111 ;
112 [label="Sbal <= 1.5\ngini = 0.488\nsamples = 45\nvalue = [19.0, 26.0]\nclass = bad"] ;
100 -> 112 ;
113 [label="age <= 27.0\ngini = 0.375\nsamples = 4\nvalue = [1, 3]\nclass = bad"] ;
112 -> 113 ;
114 [label="gini = 0.0\nsamples = 3\nvalue = [0, 3]\nclass = bad"] ;
113 -> 114 ;
115 [label="gini = 0.0\nsamples = 1\nvalue = [1, 0]\nclass = good"] ;
113 -> 115 ;
116 [label="age <= 25.5\ngini = 0.493\nsamples = 41\nvalue = [18.0, 23.0]\nclass = bad"] ;
112 -> 116 ;
117 [label="age <= 22.5\ngini = 0.5\nsamples = 24\nvalue = [12, 12]\nclass = good"] ;
116 -> 117 ;
118 [label="age <= 21.5\ngini = 0.463\nsamples = 11\nvalue = [4, 7]\nclass = bad"] ;
117 -> 118 ;
119 [label="age <= 20.5\ngini = 0.375\nsamples = 4\nvalue = [1, 3]\nclass = bad"] ;
118 -> 119 ;
120 [label="gini = 0.444\nsamples = 3\nvalue = [1, 2]\nclass = bad"] ;
119 -> 120 ;
121 [label="gini = 0.0\nsamples = 1\nvalue = [0, 1]\nclass = bad"] ;
119 -> 121 ;
122 [label="gini = 0.49\nsamples = 7\nvalue = [3, 4]\nclass = bad"] ;
118 -> 122 ;
123 [label="age <= 23.5\ngini = 0.473\nsamples = 13\nvalue = [8, 5]\nclass = good"] ;
117 -> 123 ;
124 [label="gini = 0.375\nsamples = 4\nvalue = [3, 1]\nclass = good"] ;
123 -> 124 ;
125 [label="age <= 24.5\ngini = 0.494\nsamples = 9\nvalue = [5, 4]\nclass = good"] ;
123 -> 125 ;
126 [label="gini = 0.5\nsamples = 4\nvalue = [2, 2]\nclass = good"] ;
125 -> 126 ;
127 [label="gini = 0.48\nsamples = 5\nvalue = [3, 2]\nclass = good"] ;
125 -> 127 ;
128 [label="age <= 27.5\ngini = 0.457\nsamples = 17\nvalue = [6, 11]\nclass = bad"] ;
116 -> 128 ;
129 [label="age <= 26.5\ngini = 0.375\nsamples = 8\nvalue = [2, 6]\nclass = bad"] ;
128 -> 129 ;
130 [label="gini = 0.375\nsamples = 4\nvalue = [1, 3]\nclass = bad"] ;
129 -> 130 ;
131 [label="gini = 0.375\nsamples = 4\nvalue = [1, 3]\nclass = bad"] ;
129 -> 131 ;
132 [label="age <= 28.5\ngini = 0.494\nsamples = 9\nvalue = [4, 5]\nclass = bad"] ;
128 -> 132 ;
133 [label="gini = 0.48\nsamples = 5\nvalue = [2, 3]\nclass = bad"] ;
132 -> 133 ;
134 [label="gini = 0.5\nsamples = 4\nvalue = [2, 2]\nclass = good"] ;
132 -> 134 ;
135 [label="Sbal <= 1.5\ngini = 0.368\nsamples = 37\nvalue = [9, 28]\nclass = bad"] ;
99 -> 135 ;
136 [label="gini = 0.0\nsamples = 11\nvalue = [0, 11]\nclass = bad"] ;
135 -> 136 ;
137 [label="age <= 35.5\ngini = 0.453\nsamples = 26\nvalue = [9, 17]\nclass = bad"] ;
135 -> 137 ;
138 [label="age <= 30.5\ngini = 0.375\nsamples = 20\nvalue = [5, 15]\nclass = bad"] ;
137 -> 138 ;
139 [label="gini = 0.49\nsamples = 7\nvalue = [3, 4]\nclass = bad"] ;
138 -> 139 ;
140 [label="age <= 32.5\ngini = 0.26\nsamples = 13\nvalue = [2, 11]\nclass = bad"] ;
138 -> 140 ;
141 [label="gini = 0.0\nsamples = 3\nvalue = [0, 3]\nclass = bad"] ;
140 -> 141 ;
142 [label="age <= 34.5\ngini = 0.32\nsamples = 10\nvalue = [2, 8]\nclass = bad"] ;
140 -> 142 ;
143 [label="age <= 33.5\ngini = 0.408\nsamples = 7\nvalue = [2, 5]\nclass = bad"] ;
142 -> 143 ;
144 [label="gini = 0.375\nsamples = 4\nvalue = [1, 3]\nclass = bad"] ;
143 -> 144 ;
145 [label="gini = 0.444\nsamples = 3\nvalue = [1, 2]\nclass = bad"] ;
143 -> 145 ;
146 [label="gini = 0.0\nsamples = 3\nvalue = [0, 3]\nclass = bad"] ;
142 -> 146 ;
147 [label="age <= 36.5\ngini = 0.444\nsamples = 6\nvalue = [4, 2]\nclass = good"] ;
137 -> 147 ;
148 [label="gini = 0.0\nsamples = 1\nvalue = [1, 0]\nclass = good"] ;
147 -> 148 ;
149 [label="age <= 37.5\ngini = 0.48\nsamples = 5\nvalue = [3, 2]\nclass = good"] ;
147 -> 149 ;
150 [label="gini = 0.444\nsamples = 3\nvalue = [2, 1]\nclass = good"] ;
149 -> 150 ;
151 [label="gini = 0.5\nsamples = 2\nvalue = [1, 1]\nclass = good"] ;
149 -> 151 ;
152 [label="age <= 62.5\ngini = 0.494\nsamples = 27\nvalue = [15, 12]\nclass = good"] ;
98 -> 152 ;
153 [label="Sbal <= 1.0\ngini = 0.444\nsamples = 21\nvalue = [14, 7]\nclass = good"] ;
152 -> 153 ;
154 [label="gini = 0.0\nsamples = 4\nvalue = [4, 0]\nclass = good"] ;
153 -> 154 ;
155 [label="age <= 55.5\ngini = 0.484\nsamples = 17\nvalue = [10, 7]\nclass = good"] ;
153 -> 155 ;
156 [label="age <= 50.5\ngini = 0.498\nsamples = 15\nvalue = [8, 7]\nclass = good"] ;
155 -> 156 ;
157 [label="age <= 43.5\ngini = 0.473\nsamples = 13\nvalue = [8, 5]\nclass = good"] ;
156 -> 157 ;
158 [label="age <= 40.5\ngini = 0.32\nsamples = 5\nvalue = [4, 1]\nclass = good"] ;
157 -> 158 ;
159 [label="gini = 0.5\nsamples = 2\nvalue = [1, 1]\nclass = good"] ;
158 -> 159 ;
160 [label="gini = 0.0\nsamples = 3\nvalue = [3, 0]\nclass = good"] ;
158 -> 160 ;
161 [label="age <= 45.5\ngini = 0.5\nsamples = 8\nvalue = [4, 4]\nclass = good"] ;
157 -> 161 ;
162 [label="age <= 44.5\ngini = 0.375\nsamples = 4\nvalue = [1, 3]\nclass = bad"] ;
161 -> 162 ;
163 [label="gini = 0.444\nsamples = 3\nvalue = [1, 2]\nclass = bad"] ;
162 -> 163 ;
164 [label="gini = 0.0\nsamples = 1\nvalue = [0, 1]\nclass = bad"] ;
162 -> 164 ;
165 [label="age <= 46.5\ngini = 0.375\nsamples = 4\nvalue = [3, 1]\nclass = good"] ;
161 -> 165 ;
166 [label="gini = 0.0\nsamples = 1\nvalue = [1, 0]\nclass = good"] ;
165 -> 166 ;
167 [label="age <= 48.5\ngini = 0.444\nsamples = 3\nvalue = [2, 1]\nclass = good"] ;
165 -> 167 ;
168 [label="gini = 0.5\nsamples = 2\nvalue = [1, 1]\nclass = good"] ;
167 -> 168 ;
169 [label="gini = 0.0\nsamples = 1\nvalue = [1, 0]\nclass = good"] ;
167 -> 169 ;
170 [label="gini = 0.0\nsamples = 2\nvalue = [0, 2]\nclass = bad"] ;
156 -> 170 ;
171 [label="gini = 0.0\nsamples = 2\nvalue = [2, 0]\nclass = good"] ;
155 -> 171 ;
172 [label="Sbal <= 1.5\ngini = 0.278\nsamples = 6\nvalue = [1, 5]\nclass = bad"] ;
152 -> 172 ;
173 [label="gini = 0.5\nsamples = 2\nvalue = [1, 1]\nclass = good"] ;
172 -> 173 ;
174 [label="gini = 0.0\nsamples = 4\nvalue = [0, 4]\nclass = bad"] ;
172 -> 174 ;
175 [label="age <= 35.5\ngini = 0.425\nsamples = 98\nvalue = [30, 68]\nclass = bad"] ;
3 -> 175 ;
176 [label="Sbal <= 0.5\ngini = 0.496\nsamples = 46\nvalue = [21, 25]\nclass = bad"] ;
175 -> 176 ;
177 [label="gini = 0.0\nsamples = 4\nvalue = [0, 4]\nclass = bad"] ;
176 -> 177 ;
178 [label="age <= 22.0\ngini = 0.5\nsamples = 42\nvalue = [21, 21]\nclass = good"] ;
176 -> 178 ;
179 [label="gini = 0.0\nsamples = 1\nvalue = [0, 1]\nclass = bad"] ;
178 -> 179 ;
180 [label="age <= 28.5\ngini = 0.5\nsamples = 41\nvalue = [21, 20]\nclass = good"] ;
178 -> 180 ;
181 [label="Sbal <= 1.5\ngini = 0.497\nsamples = 24\nvalue = [11, 13]\nclass = bad"] ;
180 -> 181 ;
182 [label="age <= 25.0\ngini = 0.444\nsamples = 3\nvalue = [2, 1]\nclass = good"] ;
181 -> 182 ;
183 [label="gini = 0.0\nsamples = 2\nvalue = [2, 0]\nclass = good"] ;
182 -> 183 ;
184 [label="gini = 0.0\nsamples = 1\nvalue = [0, 1]\nclass = bad"] ;
182 -> 184 ;
185 [label="age <= 24.5\ngini = 0.49\nsamples = 21\nvalue = [9, 12]\nclass = bad"] ;
181 -> 185 ;
186 [label="Cbal <= 0.5\ngini = 0.444\nsamples = 6\nvalue = [2, 4]\nclass = bad"] ;
185 -> 186 ;
187 [label="age <= 23.5\ngini = 0.444\nsamples = 3\nvalue = [2, 1]\nclass = good"] ;
186 -> 187 ;
188 [label="gini = 0.0\nsamples = 1\nvalue = [1, 0]\nclass = good"] ;
187 -> 188 ;
189 [label="gini = 0.5\nsamples = 2\nvalue = [1, 1]\nclass = good"] ;
187 -> 189 ;
190 [label="gini = 0.0\nsamples = 3\nvalue = [0, 3]\nclass = bad"] ;
186 -> 190 ;
191 [label="Cbal <= 0.5\ngini = 0.498\nsamples = 15\nvalue = [7, 8]\nclass = bad"] ;
185 -> 191 ;
192 [label="age <= 27.5\ngini = 0.408\nsamples = 7\nvalue = [2, 5]\nclass = bad"] ;
191 -> 192 ;
193 [label="age <= 26.0\ngini = 0.48\nsamples = 5\nvalue = [2, 3]\nclass = bad"] ;
192 -> 193 ;
194 [label="gini = 0.375\nsamples = 4\nvalue = [1, 3]\nclass = bad"] ;
193 -> 194 ;
195 [label="gini = 0.0\nsamples = 1\nvalue = [1, 0]\nclass = good"] ;
193 -> 195 ;
196 [label="gini = 0.0\nsamples = 2\nvalue = [0, 2]\nclass = bad"] ;
192 -> 196 ;
197 [label="age <= 25.5\ngini = 0.469\nsamples = 8\nvalue = [5, 3]\nclass = good"] ;
191 -> 197 ;
198 [label="gini = 0.0\nsamples = 2\nvalue = [2, 0]\nclass = good"] ;
197 -> 198 ;
199 [label="age <= 27.5\ngini = 0.5\nsamples = 6\nvalue = [3, 3]\nclass = good"] ;
197 -> 199 ;
200 [label="age <= 26.5\ngini = 0.375\nsamples = 4\nvalue = [1, 3]\nclass = bad"] ;
199 -> 200 ;
201 [label="gini = 0.0\nsamples = 1\nvalue = [0, 1]\nclass = bad"] ;
200 -> 201 ;
202 [label="gini = 0.444\nsamples = 3\nvalue = [1, 2]\nclass = bad"] ;
200 -> 202 ;
203 [label="gini = 0.0\nsamples = 2\nvalue = [2, 0]\nclass = good"] ;
199 -> 203 ;
204 [label="age <= 33.5\ngini = 0.484\nsamples = 17\nvalue = [10, 7]\nclass = good"] ;
180 -> 204 ;
205 [label="Cbal <= 0.5\ngini = 0.444\nsamples = 12\nvalue = [8, 4]\nclass = good"] ;
204 -> 205 ;
206 [label="age <= 32.5\ngini = 0.49\nsamples = 7\nvalue = [3, 4]\nclass = bad"] ;
205 -> 206 ;
207 [label="age <= 29.5\ngini = 0.32\nsamples = 5\nvalue = [1, 4]\nclass = bad"] ;
206 -> 207 ;
208 [label="gini = 0.0\nsamples = 1\nvalue = [1, 0]\nclass = good"] ;
207 -> 208 ;
209 [label="gini = 0.0\nsamples = 4\nvalue = [0, 4]\nclass = bad"] ;
207 -> 209 ;
210 [label="gini = 0.0\nsamples = 2\nvalue = [2, 0]\nclass = good"] ;
206 -> 210 ;
211 [label="gini = 0.0\nsamples = 5\nvalue = [5, 0]\nclass = good"] ;
205 -> 211 ;
212 [label="Cbal <= 0.5\ngini = 0.48\nsamples = 5\nvalue = [2, 3]\nclass = bad"] ;
204 -> 212 ;
213 [label="gini = 0.0\nsamples = 1\nvalue = [1, 0]\nclass = good"] ;
212 -> 213 ;
214 [label="age <= 34.5\ngini = 0.375\nsamples = 4\nvalue = [1, 3]\nclass = bad"] ;
212 -> 214 ;
215 [label="gini = 0.444\nsamples = 3\nvalue = [1, 2]\nclass = bad"] ;
214 -> 215 ;
216 [label="gini = 0.0\nsamples = 1\nvalue = [0, 1]\nclass = bad"] ;
214 -> 216 ;
217 [label="age <= 61.5\ngini = 0.286\nsamples = 52\nvalue = [9, 43]\nclass = bad"] ;
175 -> 217 ;
218 [label="age <= 59.0\ngini = 0.31\nsamples = 47\nvalue = [9, 38]\nclass = bad"] ;
217 -> 218 ;
219 [label="age <= 46.5\ngini = 0.287\nsamples = 46\nvalue = [8, 38]\nclass = bad"] ;
218 -> 219 ;
220 [label="age <= 42.0\ngini = 0.334\nsamples = 33\nvalue = [7, 26]\nclass = bad"] ;
219 -> 220 ;
221 [label="Cbal <= 0.5\ngini = 0.219\nsamples = 24\nvalue = [3, 21]\nclass = bad"] ;
220 -> 221 ;
222 [label="gini = 0.0\nsamples = 12\nvalue = [0, 12]\nclass = bad"] ;
221 -> 222 ;
223 [label="age <= 39.5\ngini = 0.375\nsamples = 12\nvalue = [3, 9]\nclass = bad"] ;
221 -> 223 ;
224 [label="age <= 37.5\ngini = 0.469\nsamples = 8\nvalue = [3, 5]\nclass = bad"] ;
223 -> 224 ;
225 [label="age <= 36.5\ngini = 0.278\nsamples = 6\nvalue = [1, 5]\nclass = bad"] ;
224 -> 225 ;
226 [label="Sbal <= 1.5\ngini = 0.444\nsamples = 3\nvalue = [1, 2]\nclass = bad"] ;
225 -> 226 ;
227 [label="gini = 0.0\nsamples = 1\nvalue = [0, 1]\nclass = bad"] ;
226 -> 227 ;
228 [label="gini = 0.5\nsamples = 2\nvalue = [1, 1]\nclass = good"] ;
226 -> 228 ;
229 [label="gini = 0.0\nsamples = 3\nvalue = [0, 3]\nclass = bad"] ;
225 -> 229 ;
230 [label="gini = 0.0\nsamples = 2\nvalue = [2, 0]\nclass = good"] ;
224 -> 230 ;
231 [label="gini = 0.0\nsamples = 4\nvalue = [0, 4]\nclass = bad"] ;
223 -> 231 ;
232 [label="Cbal <= 0.5\ngini = 0.494\nsamples = 9\nvalue = [4, 5]\nclass = bad"] ;
220 -> 232 ;
233 [label="age <= 43.5\ngini = 0.5\nsamples = 8\nvalue = [4, 4]\nclass = good"] ;
232 -> 233 ;
234 [label="gini = 0.444\nsamples = 3\nvalue = [2, 1]\nclass = good"] ;
233 -> 234 ;
235 [label="age <= 45.0\ngini = 0.48\nsamples = 5\nvalue = [2, 3]\nclass = bad"] ;
233 -> 235 ;
236 [label="gini = 0.444\nsamples = 3\nvalue = [1, 2]\nclass = bad"] ;
235 -> 236 ;
237 [label="gini = 0.5\nsamples = 2\nvalue = [1, 1]\nclass = good"] ;
235 -> 237 ;
238 [label="gini = 0.0\nsamples = 1\nvalue = [0, 1]\nclass = bad"] ;
232 -> 238 ;
239 [label="Cbal <= 0.5\ngini = 0.142\nsamples = 13\nvalue = [1, 12]\nclass = bad"] ;
219 -> 239 ;
240 [label="gini = 0.0\nsamples = 8\nvalue = [0, 8]\nclass = bad"] ;
239 -> 240 ;
241 [label="age <= 48.5\ngini = 0.32\nsamples = 5\nvalue = [1, 4]\nclass = bad"] ;
239 -> 241 ;
242 [label="gini = 0.0\nsamples = 3\nvalue = [0, 3]\nclass = bad"] ;
241 -> 242 ;
243 [label="gini = 0.5\nsamples = 2\nvalue = [1, 1]\nclass = good"] ;
241 -> 243 ;
244 [label="gini = 0.0\nsamples = 1\nvalue = [1, 0]\nclass = good"] ;
218 -> 244 ;
245 [label="gini = 0.0\nsamples = 5\nvalue = [0, 5]\nclass = bad"] ;
217 -> 245 ;
246 [label="age <= 33.5\ngini = 0.366\nsamples = 29\nvalue = [22, 7]\nclass = good"] ;
2 -> 246 ;
247 [label="age <= 29.5\ngini = 0.455\nsamples = 20\nvalue = [13, 7]\nclass = good"] ;
246 -> 247 ;
248 [label="age <= 27.0\ngini = 0.153\nsamples = 12\nvalue = [11, 1]\nclass = good"] ;
247 -> 248 ;
249 [label="gini = 0.0\nsamples = 7\nvalue = [7, 0]\nclass = good"] ;
248 -> 249 ;
250 [label="Cbal <= 0.5\ngini = 0.32\nsamples = 5\nvalue = [4, 1]\nclass = good"] ;
248 -> 250 ;
251 [label="gini = 0.0\nsamples = 3\nvalue = [3, 0]\nclass = good"] ;
250 -> 251 ;
252 [label="Sbal <= 1.0\ngini = 0.5\nsamples = 2\nvalue = [1, 1]\nclass = good"] ;
250 -> 252 ;
253 [label="gini = 0.0\nsamples = 1\nvalue = [1, 0]\nclass = good"] ;
252 -> 253 ;
254 [label="gini = 0.0\nsamples = 1\nvalue = [0, 1]\nclass = bad"] ;
252 -> 254 ;
255 [label="age <= 31.5\ngini = 0.375\nsamples = 8\nvalue = [2, 6]\nclass = bad"] ;
247 -> 255 ;
256 [label="gini = 0.0\nsamples = 4\nvalue = [0, 4]\nclass = bad"] ;
255 -> 256 ;
257 [label="age <= 32.5\ngini = 0.5\nsamples = 4\nvalue = [2, 2]\nclass = good"] ;
255 -> 257 ;
258 [label="Cbal <= 0.5\ngini = 0.5\nsamples = 2\nvalue = [1, 1]\nclass = good"] ;
257 -> 258 ;
259 [label="gini = 0.0\nsamples = 1\nvalue = [0, 1]\nclass = bad"] ;
258 -> 259 ;
260 [label="gini = 0.0\nsamples = 1\nvalue = [1, 0]\nclass = good"] ;
258 -> 260 ;
261 [label="Cbal <= 0.5\ngini = 0.5\nsamples = 2\nvalue = [1, 1]\nclass = good"] ;
257 -> 261 ;
262 [label="gini = 0.0\nsamples = 1\nvalue = [1, 0]\nclass = good"] ;
261 -> 262 ;
263 [label="gini = 0.0\nsamples = 1\nvalue = [0, 1]\nclass = bad"] ;
261 -> 263 ;
264 [label="gini = 0.0\nsamples = 9\nvalue = [9, 0]\nclass = good"] ;
246 -> 264 ;
265 [label="Chist <= 1.5\ngini = 0.387\nsamples = 84\nvalue = [22, 62]\nclass = bad"] ;
1 -> 265 ;
266 [label="Cbal <= 0.5\ngini = 0.434\nsamples = 66\nvalue = [21, 45]\nclass = bad"] ;
265 -> 266 ;
267 [label="Sbal <= 3.5\ngini = 0.499\nsamples = 27\nvalue = [13, 14]\nclass = bad"] ;
266 -> 267 ;
268 [label="gini = 0.0\nsamples = 4\nvalue = [0, 4]\nclass = bad"] ;
267 -> 268 ;
269 [label="age <= 48.0\ngini = 0.491\nsamples = 23\nvalue = [13.0, 10.0]\nclass = good"] ;
267 -> 269 ;
270 [label="age <= 39.5\ngini = 0.465\nsamples = 19\nvalue = [12, 7]\nclass = good"] ;
269 -> 270 ;
271 [label="age <= 37.0\ngini = 0.498\nsamples = 15\nvalue = [8, 7]\nclass = good"] ;
270 -> 271 ;
272 [label="age <= 31.0\ngini = 0.49\nsamples = 14\nvalue = [8, 6]\nclass = good"] ;
271 -> 272 ;
273 [label="age <= 21.5\ngini = 0.5\nsamples = 12\nvalue = [6, 6]\nclass = good"] ;
272 -> 273 ;
274 [label="gini = 0.0\nsamples = 1\nvalue = [1, 0]\nclass = good"] ;
273 -> 274 ;
275 [label="age <= 23.5\ngini = 0.496\nsamples = 11\nvalue = [5, 6]\nclass = bad"] ;
273 -> 275 ;
276 [label="gini = 0.375\nsamples = 4\nvalue = [1, 3]\nclass = bad"] ;
275 -> 276 ;
277 [label="age <= 25.5\ngini = 0.49\nsamples = 7\nvalue = [4, 3]\nclass = good"] ;
275 -> 277 ;
278 [label="age <= 24.5\ngini = 0.444\nsamples = 3\nvalue = [2, 1]\nclass = good"] ;
277 -> 278 ;
279 [label="gini = 0.5\nsamples = 2\nvalue = [1, 1]\nclass = good"] ;
278 -> 279 ;
280 [label="gini = 0.0\nsamples = 1\nvalue = [1, 0]\nclass = good"] ;
278 -> 280 ;
281 [label="age <= 27.5\ngini = 0.5\nsamples = 4\nvalue = [2, 2]\nclass = good"] ;
277 -> 281 ;
282 [label="gini = 0.0\nsamples = 1\nvalue = [0, 1]\nclass = bad"] ;
281 -> 282 ;
283 [label="age <= 29.5\ngini = 0.444\nsamples = 3\nvalue = [2, 1]\nclass = good"] ;
281 -> 283 ;
284 [label="gini = 0.0\nsamples = 1\nvalue = [1, 0]\nclass = good"] ;
283 -> 284 ;
285 [label="gini = 0.5\nsamples = 2\nvalue = [1, 1]\nclass = good"] ;
283 -> 285 ;
286 [label="gini = 0.0\nsamples = 2\nvalue = [2, 0]\nclass = good"] ;
272 -> 286 ;
287 [label="gini = 0.0\nsamples = 1\nvalue = [0, 1]\nclass = bad"] ;
271 -> 287 ;
288 [label="gini = 0.0\nsamples = 4\nvalue = [4, 0]\nclass = good"] ;
270 -> 288 ;
289 [label="age <= 50.0\ngini = 0.375\nsamples = 4\nvalue = [1, 3]\nclass = bad"] ;
269 -> 289 ;
290 [label="gini = 0.0\nsamples = 2\nvalue = [0, 2]\nclass = bad"] ;
289 -> 290 ;
291 [label="age <= 63.0\ngini = 0.5\nsamples = 2\nvalue = [1, 1]\nclass = good"] ;
289 -> 291 ;
292 [label="gini = 0.0\nsamples = 1\nvalue = [1, 0]\nclass = good"] ;
291 -> 292 ;
293 [label="gini = 0.0\nsamples = 1\nvalue = [0, 1]\nclass = bad"] ;
291 -> 293 ;
294 [label="age <= 50.0\ngini = 0.326\nsamples = 39\nvalue = [8.0, 31.0]\nclass = bad"] ;
266 -> 294 ;
295 [label="age <= 33.5\ngini = 0.291\nsamples = 34\nvalue = [6, 28]\nclass = bad"] ;
294 -> 295 ;
296 [label="age <= 31.0\ngini = 0.401\nsamples = 18\nvalue = [5, 13]\nclass = bad"] ;
295 -> 296 ;
297 [label="age <= 22.5\ngini = 0.36\nsamples = 17\nvalue = [4, 13]\nclass = bad"] ;
296 -> 297 ;
298 [label="gini = 0.0\nsamples = 3\nvalue = [0, 3]\nclass = bad"] ;
297 -> 298 ;
299 [label="Sbal <= 3.5\ngini = 0.408\nsamples = 14\nvalue = [4, 10]\nclass = bad"] ;
297 -> 299 ;
300 [label="gini = 0.0\nsamples = 1\nvalue = [1, 0]\nclass = good"] ;
299 -> 300 ;
301 [label="age <= 23.5\ngini = 0.355\nsamples = 13\nvalue = [3, 10]\nclass = bad"] ;
299 -> 301 ;
302 [label="gini = 0.5\nsamples = 2\nvalue = [1, 1]\nclass = good"] ;
301 -> 302 ;
303 [label="age <= 24.5\ngini = 0.298\nsamples = 11\nvalue = [2, 9]\nclass = bad"] ;
301 -> 303 ;
304 [label="gini = 0.0\nsamples = 3\nvalue = [0, 3]\nclass = bad"] ;
303 -> 304 ;
305 [label="age <= 25.5\ngini = 0.375\nsamples = 8\nvalue = [2, 6]\nclass = bad"] ;
303 -> 305 ;
306 [label="gini = 0.5\nsamples = 2\nvalue = [1, 1]\nclass = good"] ;
305 -> 306 ;
307 [label="Chist <= 0.5\ngini = 0.278\nsamples = 6\nvalue = [1, 5]\nclass = bad"] ;
305 -> 307 ;
308 [label="gini = 0.0\nsamples = 1\nvalue = [0, 1]\nclass = bad"] ;
307 -> 308 ;
309 [label="age <= 26.5\ngini = 0.32\nsamples = 5\nvalue = [1, 4]\nclass = bad"] ;
307 -> 309 ;
310 [label="gini = 0.0\nsamples = 1\nvalue = [0, 1]\nclass = bad"] ;
309 -> 310 ;
311 [label="gini = 0.375\nsamples = 4\nvalue = [1, 3]\nclass = bad"] ;
309 -> 311 ;
312 [label="gini = 0.0\nsamples = 1\nvalue = [1, 0]\nclass = good"] ;
296 -> 312 ;
313 [label="age <= 37.5\ngini = 0.117\nsamples = 16\nvalue = [1, 15]\nclass = bad"] ;
295 -> 313 ;
314 [label="age <= 36.5\ngini = 0.219\nsamples = 8\nvalue = [1, 7]\nclass = bad"] ;
313 -> 314 ;
315 [label="gini = 0.0\nsamples = 7\nvalue = [0, 7]\nclass = bad"] ;
314 -> 315 ;
316 [label="gini = 0.0\nsamples = 1\nvalue = [1, 0]\nclass = good"] ;
314 -> 316 ;
317 [label="gini = 0.0\nsamples = 8\nvalue = [0, 8]\nclass = bad"] ;
313 -> 317 ;
318 [label="age <= 53.0\ngini = 0.48\nsamples = 5\nvalue = [2, 3]\nclass = bad"] ;
294 -> 318 ;
319 [label="gini = 0.0\nsamples = 1\nvalue = [1, 0]\nclass = good"] ;
318 -> 319 ;
320 [label="age <= 60.5\ngini = 0.375\nsamples = 4\nvalue = [1, 3]\nclass = bad"] ;
318 -> 320 ;
321 [label="gini = 0.0\nsamples = 2\nvalue = [0, 2]\nclass = bad"] ;
320 -> 321 ;
322 [label="Sbal <= 3.5\ngini = 0.5\nsamples = 2\nvalue = [1, 1]\nclass = good"] ;
320 -> 322 ;
323 [label="gini = 0.0\nsamples = 1\nvalue = [1, 0]\nclass = good"] ;
322 -> 323 ;
324 [label="gini = 0.0\nsamples = 1\nvalue = [0, 1]\nclass = bad"] ;
322 -> 324 ;
325 [label="Sbal <= 3.5\ngini = 0.105\nsamples = 18\nvalue = [1, 17]\nclass = bad"] ;
265 -> 325 ;
326 [label="age <= 35.5\ngini = 0.278\nsamples = 6\nvalue = [1, 5]\nclass = bad"] ;
325 -> 326 ;
327 [label="age <= 30.5\ngini = 0.444\nsamples = 3\nvalue = [1, 2]\nclass = bad"] ;
326 -> 327 ;
328 [label="gini = 0.0\nsamples = 1\nvalue = [0, 1]\nclass = bad"] ;
327 -> 328 ;
329 [label="gini = 0.5\nsamples = 2\nvalue = [1, 1]\nclass = good"] ;
327 -> 329 ;
330 [label="gini = 0.0\nsamples = 3\nvalue = [0, 3]\nclass = bad"] ;
326 -> 330 ;
331 [label="gini = 0.0\nsamples = 12\nvalue = [0, 12]\nclass = bad"] ;
325 -> 331 ;
332 [label="Cbal <= 2.5\ngini = 0.234\nsamples = 406\nvalue = [55, 351]\nclass = bad"] ;
0 -> 332 [labeldistance=2.5, labelangle=-45, headlabel="False"] ;
333 [label="age <= 39.5\ngini = 0.384\nsamples = 54\nvalue = [14, 40]\nclass = bad"] ;
332 -> 333 ;
334 [label="age <= 33.5\ngini = 0.451\nsamples = 35\nvalue = [12, 23]\nclass = bad"] ;
333 -> 334 ;
335 [label="Chist <= 0.5\ngini = 0.365\nsamples = 25\nvalue = [6, 19]\nclass = bad"] ;
334 -> 335 ;
336 [label="gini = 0.0\nsamples = 1\nvalue = [1, 0]\nclass = good"] ;
335 -> 336 ;
337 [label="age <= 24.5\ngini = 0.33\nsamples = 24\nvalue = [5, 19]\nclass = bad"] ;
335 -> 337 ;
338 [label="gini = 0.0\nsamples = 6\nvalue = [0, 6]\nclass = bad"] ;
337 -> 338 ;
339 [label="Sbal <= 2.5\ngini = 0.401\nsamples = 18\nvalue = [5, 13]\nclass = bad"] ;
337 -> 339 ;
340 [label="Sbal <= 0.5\ngini = 0.444\nsamples = 15\nvalue = [5, 10]\nclass = bad"] ;
339 -> 340 ;
341 [label="gini = 0.0\nsamples = 2\nvalue = [0, 2]\nclass = bad"] ;
340 -> 341 ;
342 [label="Sbal <= 1.5\ngini = 0.473\nsamples = 13\nvalue = [5, 8]\nclass = bad"] ;
340 -> 342 ;
343 [label="gini = 0.0\nsamples = 1\nvalue = [1, 0]\nclass = good"] ;
342 -> 343 ;
344 [label="age <= 28.5\ngini = 0.444\nsamples = 12\nvalue = [4, 8]\nclass = bad"] ;
342 -> 344 ;
345 [label="age <= 27.0\ngini = 0.49\nsamples = 7\nvalue = [3, 4]\nclass = bad"] ;
344 -> 345 ;
346 [label="age <= 25.5\ngini = 0.444\nsamples = 6\nvalue = [2, 4]\nclass = bad"] ;
345 -> 346 ;
347 [label="gini = 0.5\nsamples = 2\nvalue = [1, 1]\nclass = good"] ;
346 -> 347 ;
348 [label="gini = 0.375\nsamples = 4\nvalue = [1, 3]\nclass = bad"] ;
346 -> 348 ;
349 [label="gini = 0.0\nsamples = 1\nvalue = [1, 0]\nclass = good"] ;
345 -> 349 ;
350 [label="Chist <= 1.5\ngini = 0.32\nsamples = 5\nvalue = [1, 4]\nclass = bad"] ;
344 -> 350 ;
351 [label="gini = 0.0\nsamples = 3\nvalue = [0, 3]\nclass = bad"] ;
350 -> 351 ;
352 [label="Chist <= 2.5\ngini = 0.5\nsamples = 2\nvalue = [1, 1]\nclass = good"] ;
350 -> 352 ;
353 [label="gini = 0.0\nsamples = 1\nvalue = [1, 0]\nclass = good"] ;
352 -> 353 ;
354 [label="gini = 0.0\nsamples = 1\nvalue = [0, 1]\nclass = bad"] ;
352 -> 354 ;
355 [label="gini = 0.0\nsamples = 3\nvalue = [0, 3]\nclass = bad"] ;
339 -> 355 ;
356 [label="age <= 35.0\ngini = 0.48\nsamples = 10\nvalue = [6, 4]\nclass = good"] ;
334 -> 356 ;
357 [label="gini = 0.0\nsamples = 2\nvalue = [2, 0]\nclass = good"] ;
356 -> 357 ;
358 [label="age <= 36.5\ngini = 0.5\nsamples = 8\nvalue = [4, 4]\nclass = good"] ;
356 -> 358 ;
359 [label="gini = 0.0\nsamples = 2\nvalue = [0, 2]\nclass = bad"] ;
358 -> 359 ;
360 [label="Chist <= 1.5\ngini = 0.444\nsamples = 6\nvalue = [4, 2]\nclass = good"] ;
358 -> 360 ;
361 [label="Sbal <= 3.0\ngini = 0.5\nsamples = 4\nvalue = [2, 2]\nclass = good"] ;
360 -> 361 ;
362 [label="age <= 37.5\ngini = 0.444\nsamples = 3\nvalue = [2, 1]\nclass = good"] ;
361 -> 362 ;
363 [label="gini = 0.5\nsamples = 2\nvalue = [1, 1]\nclass = good"] ;
362 -> 363 ;
364 [label="gini = 0.0\nsamples = 1\nvalue = [1, 0]\nclass = good"] ;
362 -> 364 ;
365 [label="gini = 0.0\nsamples = 1\nvalue = [0, 1]\nclass = bad"] ;
361 -> 365 ;
366 [label="gini = 0.0\nsamples = 2\nvalue = [2, 0]\nclass = good"] ;
360 -> 366 ;
367 [label="Sbal <= 0.5\ngini = 0.188\nsamples = 19\nvalue = [2, 17]\nclass = bad"] ;
333 -> 367 ;
368 [label="age <= 47.5\ngini = 0.444\nsamples = 3\nvalue = [1, 2]\nclass = bad"] ;
367 -> 368 ;
369 [label="gini = 0.0\nsamples = 1\nvalue = [0, 1]\nclass = bad"] ;
368 -> 369 ;
370 [label="age <= 48.5\ngini = 0.5\nsamples = 2\nvalue = [1, 1]\nclass = good"] ;
368 -> 370 ;
371 [label="gini = 0.0\nsamples = 1\nvalue = [1, 0]\nclass = good"] ;
370 -> 371 ;
372 [label="gini = 0.0\nsamples = 1\nvalue = [0, 1]\nclass = bad"] ;
370 -> 372 ;
373 [label="age <= 64.5\ngini = 0.117\nsamples = 16\nvalue = [1, 15]\nclass = bad"] ;
367 -> 373 ;
374 [label="gini = 0.0\nsamples = 13\nvalue = [0, 13]\nclass = bad"] ;
373 -> 374 ;
375 [label="Chist <= 1.5\ngini = 0.444\nsamples = 3\nvalue = [1, 2]\nclass = bad"] ;
373 -> 375 ;
376 [label="gini = 0.0\nsamples = 1\nvalue = [1, 0]\nclass = good"] ;
375 -> 376 ;
377 [label="gini = 0.0\nsamples = 2\nvalue = [0, 2]\nclass = bad"] ;
375 -> 377 ;
378 [label="age <= 22.5\ngini = 0.206\nsamples = 352\nvalue = [41, 311]\nclass = bad"] ;
332 -> 378 ;
379 [label="age <= 21.5\ngini = 0.459\nsamples = 14\nvalue = [5, 9]\nclass = bad"] ;
378 -> 379 ;
380 [label="age <= 19.5\ngini = 0.32\nsamples = 10\nvalue = [2, 8]\nclass = bad"] ;
379 -> 380 ;
381 [label="gini = 0.0\nsamples = 1\nvalue = [1, 0]\nclass = good"] ;
380 -> 381 ;
382 [label="Sbal <= 3.0\ngini = 0.198\nsamples = 9\nvalue = [1, 8]\nclass = bad"] ;
380 -> 382 ;
383 [label="age <= 20.5\ngini = 0.278\nsamples = 6\nvalue = [1, 5]\nclass = bad"] ;
382 -> 383 ;
384 [label="gini = 0.0\nsamples = 2\nvalue = [0, 2]\nclass = bad"] ;
383 -> 384 ;
385 [label="Sbal <= 1.0\ngini = 0.375\nsamples = 4\nvalue = [1, 3]\nclass = bad"] ;
383 -> 385 ;
386 [label="gini = 0.0\nsamples = 1\nvalue = [0, 1]\nclass = bad"] ;
385 -> 386 ;
387 [label="gini = 0.444\nsamples = 3\nvalue = [1, 2]\nclass = bad"] ;
385 -> 387 ;
388 [label="gini = 0.0\nsamples = 3\nvalue = [0, 3]\nclass = bad"] ;
382 -> 388 ;
389 [label="Sbal <= 1.0\ngini = 0.375\nsamples = 4\nvalue = [3, 1]\nclass = good"] ;
379 -> 389 ;
390 [label="gini = 0.0\nsamples = 1\nvalue = [0, 1]\nclass = bad"] ;
389 -> 390 ;
391 [label="gini = 0.0\nsamples = 3\nvalue = [3, 0]\nclass = good"] ;
389 -> 391 ;
392 [label="age <= 33.5\ngini = 0.19\nsamples = 338\nvalue = [36, 302]\nclass = bad"] ;
378 -> 392 ;
393 [label="Chist <= 2.5\ngini = 0.255\nsamples = 147\nvalue = [22.0, 125.0]\nclass = bad"] ;
392 -> 393 ;
394 [label="Sbal <= 2.5\ngini = 0.248\nsamples = 145\nvalue = [21, 124]\nclass = bad"] ;
393 -> 394 ;
395 [label="age <= 25.5\ngini = 0.265\nsamples = 108\nvalue = [17, 91]\nclass = bad"] ;
394 -> 395 ;
396 [label="age <= 24.5\ngini = 0.33\nsamples = 24\nvalue = [5, 19]\nclass = bad"] ;
395 -> 396 ;
397 [label="Chist <= 1.5\ngini = 0.278\nsamples = 18\nvalue = [3, 15]\nclass = bad"] ;
396 -> 397 ;
398 [label="Sbal <= 1.5\ngini = 0.18\nsamples = 10\nvalue = [1, 9]\nclass = bad"] ;
397 -> 398 ;
399 [label="gini = 0.0\nsamples = 5\nvalue = [0, 5]\nclass = bad"] ;
398 -> 399 ;
400 [label="age <= 23.5\ngini = 0.32\nsamples = 5\nvalue = [1, 4]\nclass = bad"] ;
398 -> 400 ;
401 [label="gini = 0.444\nsamples = 3\nvalue = [1, 2]\nclass = bad"] ;
400 -> 401 ;
402 [label="gini = 0.0\nsamples = 2\nvalue = [0, 2]\nclass = bad"] ;
400 -> 402 ;
403 [label="Sbal <= 0.5\ngini = 0.375\nsamples = 8\nvalue = [2, 6]\nclass = bad"] ;
397 -> 403 ;
404 [label="gini = 0.0\nsamples = 1\nvalue = [1, 0]\nclass = good"] ;
403 -> 404 ;
405 [label="age <= 23.5\ngini = 0.245\nsamples = 7\nvalue = [1, 6]\nclass = bad"] ;
403 -> 405 ;
406 [label="gini = 0.444\nsamples = 3\nvalue = [1, 2]\nclass = bad"] ;
405 -> 406 ;
407 [label="gini = 0.0\nsamples = 4\nvalue = [0, 4]\nclass = bad"] ;
405 -> 407 ;
408 [label="Sbal <= 1.0\ngini = 0.444\nsamples = 6\nvalue = [2, 4]\nclass = bad"] ;
396 -> 408 ;
409 [label="gini = 0.0\nsamples = 1\nvalue = [0, 1]\nclass = bad"] ;
408 -> 409 ;
410 [label="Chist <= 1.5\ngini = 0.48\nsamples = 5\nvalue = [2, 3]\nclass = bad"] ;
408 -> 410 ;
411 [label="gini = 0.5\nsamples = 2\nvalue = [1, 1]\nclass = good"] ;
410 -> 411 ;
412 [label="gini = 0.444\nsamples = 3\nvalue = [1, 2]\nclass = bad"] ;
410 -> 412 ;
413 [label="Chist <= 1.5\ngini = 0.245\nsamples = 84\nvalue = [12, 72]\nclass = bad"] ;
395 -> 413 ;
414 [label="age <= 28.5\ngini = 0.282\nsamples = 53\nvalue = [9, 44]\nclass = bad"] ;
413 -> 414 ;
415 [label="Sbal <= 0.5\ngini = 0.34\nsamples = 23\nvalue = [5, 18]\nclass = bad"] ;
414 -> 415 ;
416 [label="gini = 0.0\nsamples = 4\nvalue = [0, 4]\nclass = bad"] ;
415 -> 416 ;
417 [label="Sbal <= 1.5\ngini = 0.388\nsamples = 19\nvalue = [5, 14]\nclass = bad"] ;
415 -> 417 ;
418 [label="gini = 0.0\nsamples = 1\nvalue = [1, 0]\nclass = good"] ;
417 -> 418 ;
419 [label="age <= 27.5\ngini = 0.346\nsamples = 18\nvalue = [4, 14]\nclass = bad"] ;
417 -> 419 ;
420 [label="Chist <= 0.5\ngini = 0.278\nsamples = 12\nvalue = [2, 10]\nclass = bad"] ;
419 -> 420 ;
421 [label="gini = 0.0\nsamples = 1\nvalue = [0, 1]\nclass = bad"] ;
420 -> 421 ;
422 [label="age <= 26.5\ngini = 0.298\nsamples = 11\nvalue = [2, 9]\nclass = bad"] ;
420 -> 422 ;
423 [label="gini = 0.245\nsamples = 7\nvalue = [1, 6]\nclass = bad"] ;
422 -> 423 ;
424 [label="gini = 0.375\nsamples = 4\nvalue = [1, 3]\nclass = bad"] ;
422 -> 424 ;
425 [label="gini = 0.444\nsamples = 6\nvalue = [2, 4]\nclass = bad"] ;
419 -> 425 ;
426 [label="Sbal <= 1.5\ngini = 0.231\nsamples = 30\nvalue = [4, 26]\nclass = bad"] ;
414 -> 426 ;
427 [label="age <= 31.5\ngini = 0.346\nsamples = 9\nvalue = [2, 7]\nclass = bad"] ;
426 -> 427 ;
428 [label="age <= 29.5\ngini = 0.444\nsamples = 6\nvalue = [2, 4]\nclass = bad"] ;
427 -> 428 ;
429 [label="Sbal <= 0.5\ngini = 0.5\nsamples = 2\nvalue = [1, 1]\nclass = good"] ;
428 -> 429 ;
430 [label="gini = 0.0\nsamples = 1\nvalue = [0, 1]\nclass = bad"] ;
429 -> 430 ;
431 [label="gini = 0.0\nsamples = 1\nvalue = [1, 0]\nclass = good"] ;
429 -> 431 ;
432 [label="Sbal <= 0.5\ngini = 0.375\nsamples = 4\nvalue = [1, 3]\nclass = bad"] ;
428 -> 432 ;
433 [label="gini = 0.5\nsamples = 2\nvalue = [1, 1]\nclass = good"] ;
432 -> 433 ;
434 [label="gini = 0.0\nsamples = 2\nvalue = [0, 2]\nclass = bad"] ;
432 -> 434 ;
435 [label="gini = 0.0\nsamples = 3\nvalue = [0, 3]\nclass = bad"] ;
427 -> 435 ;
436 [label="age <= 31.5\ngini = 0.172\nsamples = 21\nvalue = [2, 19]\nclass = bad"] ;
426 -> 436 ;
437 [label="gini = 0.0\nsamples = 11\nvalue = [0, 11]\nclass = bad"] ;
436 -> 437 ;
438 [label="age <= 32.5\ngini = 0.32\nsamples = 10\nvalue = [2, 8]\nclass = bad"] ;
436 -> 438 ;
439 [label="gini = 0.245\nsamples = 7\nvalue = [1, 6]\nclass = bad"] ;
438 -> 439 ;
440 [label="gini = 0.444\nsamples = 3\nvalue = [1, 2]\nclass = bad"] ;
438 -> 440 ;
441 [label="age <= 29.5\ngini = 0.175\nsamples = 31\nvalue = [3, 28]\nclass = bad"] ;
413 -> 441 ;
442 [label="gini = 0.0\nsamples = 14\nvalue = [0, 14]\nclass = bad"] ;
441 -> 442 ;
443 [label="Sbal <= 0.5\ngini = 0.291\nsamples = 17\nvalue = [3, 14]\nclass = bad"] ;
441 -> 443 ;
444 [label="age <= 30.5\ngini = 0.5\nsamples = 2\nvalue = [1, 1]\nclass = good"] ;
443 -> 444 ;
445 [label="gini = 0.0\nsamples = 1\nvalue = [1, 0]\nclass = good"] ;
444 -> 445 ;
446 [label="gini = 0.0\nsamples = 1\nvalue = [0, 1]\nclass = bad"] ;
444 -> 446 ;
447 [label="age <= 30.5\ngini = 0.231\nsamples = 15\nvalue = [2, 13]\nclass = bad"] ;
443 -> 447 ;
448 [label="gini = 0.0\nsamples = 4\nvalue = [0, 4]\nclass = bad"] ;
447 -> 448 ;
449 [label="age <= 32.5\ngini = 0.298\nsamples = 11\nvalue = [2, 9]\nclass = bad"] ;
447 -> 449 ;
450 [label="Sbal <= 1.5\ngini = 0.408\nsamples = 7\nvalue = [2, 5]\nclass = bad"] ;
449 -> 450 ;
451 [label="gini = 0.0\nsamples = 1\nvalue = [0, 1]\nclass = bad"] ;
450 -> 451 ;
452 [label="age <= 31.5\ngini = 0.444\nsamples = 6\nvalue = [2, 4]\nclass = bad"] ;
450 -> 452 ;
453 [label="gini = 0.375\nsamples = 4\nvalue = [1, 3]\nclass = bad"] ;
452 -> 453 ;
454 [label="gini = 0.5\nsamples = 2\nvalue = [1, 1]\nclass = good"] ;
452 -> 454 ;
455 [label="gini = 0.0\nsamples = 4\nvalue = [0, 4]\nclass = bad"] ;
449 -> 455 ;
456 [label="age <= 26.5\ngini = 0.193\nsamples = 37\nvalue = [4, 33]\nclass = bad"] ;
394 -> 456 ;
457 [label="gini = 0.0\nsamples = 13\nvalue = [0, 13]\nclass = bad"] ;
456 -> 457 ;
458 [label="age <= 27.5\ngini = 0.278\nsamples = 24\nvalue = [4, 20]\nclass = bad"] ;
456 -> 458 ;
459 [label="Chist <= 1.5\ngini = 0.48\nsamples = 5\nvalue = [2, 3]\nclass = bad"] ;
458 -> 459 ;
460 [label="Sbal <= 3.5\ngini = 0.444\nsamples = 3\nvalue = [2, 1]\nclass = good"] ;
459 -> 460 ;
461 [label="gini = 0.0\nsamples = 1\nvalue = [0, 1]\nclass = bad"] ;
460 -> 461 ;
462 [label="gini = 0.0\nsamples = 2\nvalue = [2, 0]\nclass = good"] ;
460 -> 462 ;
463 [label="gini = 0.0\nsamples = 2\nvalue = [0, 2]\nclass = bad"] ;
459 -> 463 ;
464 [label="Chist <= 1.5\ngini = 0.188\nsamples = 19\nvalue = [2, 17]\nclass = bad"] ;
458 -> 464 ;
465 [label="gini = 0.0\nsamples = 12\nvalue = [0, 12]\nclass = bad"] ;
464 -> 465 ;
466 [label="Sbal <= 3.5\ngini = 0.408\nsamples = 7\nvalue = [2, 5]\nclass = bad"] ;
464 -> 466 ;
467 [label="gini = 0.0\nsamples = 1\nvalue = [0, 1]\nclass = bad"] ;
466 -> 467 ;
468 [label="age <= 29.5\ngini = 0.444\nsamples = 6\nvalue = [2, 4]\nclass = bad"] ;
466 -> 468 ;
469 [label="gini = 0.0\nsamples = 1\nvalue = [0, 1]\nclass = bad"] ;
468 -> 469 ;
470 [label="age <= 31.5\ngini = 0.48\nsamples = 5\nvalue = [2, 3]\nclass = bad"] ;
468 -> 470 ;
471 [label="gini = 0.5\nsamples = 2\nvalue = [1, 1]\nclass = good"] ;
470 -> 471 ;
472 [label="gini = 0.444\nsamples = 3\nvalue = [1, 2]\nclass = bad"] ;
470 -> 472 ;
473 [label="Sbal <= 3.0\ngini = 0.5\nsamples = 2\nvalue = [1, 1]\nclass = good"] ;
393 -> 473 ;
474 [label="gini = 0.0\nsamples = 1\nvalue = [0, 1]\nclass = bad"] ;
473 -> 474 ;
475 [label="gini = 0.0\nsamples = 1\nvalue = [1, 0]\nclass = good"] ;
473 -> 475 ;
476 [label="Chist <= 0.5\ngini = 0.136\nsamples = 191\nvalue = [14.0, 177.0]\nclass = bad"] ;
392 -> 476 ;
477 [label="Sbal <= 1.5\ngini = 0.444\nsamples = 6\nvalue = [2, 4]\nclass = bad"] ;
476 -> 477 ;
478 [label="gini = 0.0\nsamples = 3\nvalue = [0, 3]\nclass = bad"] ;
477 -> 478 ;
479 [label="age <= 39.5\ngini = 0.444\nsamples = 3\nvalue = [2, 1]\nclass = good"] ;
477 -> 479 ;
480 [label="gini = 0.0\nsamples = 1\nvalue = [1, 0]\nclass = good"] ;
479 -> 480 ;
481 [label="age <= 46.5\ngini = 0.5\nsamples = 2\nvalue = [1, 1]\nclass = good"] ;
479 -> 481 ;
482 [label="gini = 0.0\nsamples = 1\nvalue = [0, 1]\nclass = bad"] ;
481 -> 482 ;
483 [label="gini = 0.0\nsamples = 1\nvalue = [1, 0]\nclass = good"] ;
481 -> 483 ;
484 [label="age <= 66.5\ngini = 0.121\nsamples = 185\nvalue = [12, 173]\nclass = bad"] ;
476 -> 484 ;
485 [label="age <= 35.5\ngini = 0.114\nsamples = 182\nvalue = [11, 171]\nclass = bad"] ;
484 -> 485 ;
486 [label="gini = 0.0\nsamples = 32\nvalue = [0, 32]\nclass = bad"] ;
485 -> 486 ;
487 [label="Chist <= 2.5\ngini = 0.136\nsamples = 150\nvalue = [11, 139]\nclass = bad"] ;
485 -> 487 ;
488 [label="Chist <= 1.5\ngini = 0.127\nsamples = 147\nvalue = [10.0, 137.0]\nclass = bad"] ;
487 -> 488 ;
489 [label="age <= 37.5\ngini = 0.191\nsamples = 75\nvalue = [8, 67]\nclass = bad"] ;
488 -> 489 ;
490 [label="gini = 0.0\nsamples = 11\nvalue = [0, 11]\nclass = bad"] ;
489 -> 490 ;
491 [label="age <= 44.5\ngini = 0.219\nsamples = 64\nvalue = [8, 56]\nclass = bad"] ;
489 -> 491 ;
492 [label="age <= 43.5\ngini = 0.311\nsamples = 26\nvalue = [5, 21]\nclass = bad"] ;
491 -> 492 ;
493 [label="Sbal <= 1.5\ngini = 0.278\nsamples = 24\nvalue = [4, 20]\nclass = bad"] ;
492 -> 493 ;
494 [label="age <= 39.5\ngini = 0.408\nsamples = 7\nvalue = [2, 5]\nclass = bad"] ;
493 -> 494 ;
495 [label="gini = 0.0\nsamples = 1\nvalue = [0, 1]\nclass = bad"] ;
494 -> 495 ;
496 [label="age <= 41.5\ngini = 0.444\nsamples = 6\nvalue = [2, 4]\nclass = bad"] ;
494 -> 496 ;
497 [label="Sbal <= 0.5\ngini = 0.48\nsamples = 5\nvalue = [2, 3]\nclass = bad"] ;
496 -> 497 ;
498 [label="age <= 40.5\ngini = 0.5\nsamples = 2\nvalue = [1, 1]\nclass = good"] ;
497 -> 498 ;
499 [label="gini = 0.0\nsamples = 1\nvalue = [1, 0]\nclass = good"] ;
498 -> 499 ;
500 [label="gini = 0.0\nsamples = 1\nvalue = [0, 1]\nclass = bad"] ;
498 -> 500 ;
501 [label="age <= 40.5\ngini = 0.444\nsamples = 3\nvalue = [1, 2]\nclass = bad"] ;
497 -> 501 ;
502 [label="gini = 0.0\nsamples = 2\nvalue = [0, 2]\nclass = bad"] ;
501 -> 502 ;
503 [label="gini = 0.0\nsamples = 1\nvalue = [1, 0]\nclass = good"] ;
501 -> 503 ;
504 [label="gini = 0.0\nsamples = 1\nvalue = [0, 1]\nclass = bad"] ;
496 -> 504 ;
505 [label="age <= 41.5\ngini = 0.208\nsamples = 17\nvalue = [2, 15]\nclass = bad"] ;
493 -> 505 ;
506 [label="age <= 40.5\ngini = 0.245\nsamples = 14\nvalue = [2, 12]\nclass = bad"] ;
505 -> 506 ;
507 [label="Sbal <= 3.0\ngini = 0.18\nsamples = 10\nvalue = [1, 9]\nclass = bad"] ;
506 -> 507 ;
508 [label="gini = 0.0\nsamples = 6\nvalue = [0, 6]\nclass = bad"] ;
507 -> 508 ;
509 [label="age <= 39.0\ngini = 0.375\nsamples = 4\nvalue = [1, 3]\nclass = bad"] ;
507 -> 509 ;
510 [label="gini = 0.5\nsamples = 2\nvalue = [1, 1]\nclass = good"] ;
509 -> 510 ;
511 [label="gini = 0.0\nsamples = 2\nvalue = [0, 2]\nclass = bad"] ;
509 -> 511 ;
512 [label="Sbal <= 3.0\ngini = 0.375\nsamples = 4\nvalue = [1, 3]\nclass = bad"] ;
506 -> 512 ;
513 [label="gini = 0.5\nsamples = 2\nvalue = [1, 1]\nclass = good"] ;
512 -> 513 ;
514 [label="gini = 0.0\nsamples = 2\nvalue = [0, 2]\nclass = bad"] ;
512 -> 514 ;
515 [label="gini = 0.0\nsamples = 3\nvalue = [0, 3]\nclass = bad"] ;
505 -> 515 ;
516 [label="Sbal <= 2.5\ngini = 0.5\nsamples = 2\nvalue = [1, 1]\nclass = good"] ;
492 -> 516 ;
517 [label="gini = 0.0\nsamples = 1\nvalue = [0, 1]\nclass = bad"] ;
516 -> 517 ;
518 [label="gini = 0.0\nsamples = 1\nvalue = [1, 0]\nclass = good"] ;
516 -> 518 ;
519 [label="age <= 53.5\ngini = 0.145\nsamples = 38\nvalue = [3, 35]\nclass = bad"] ;
491 -> 519 ;
520 [label="age <= 47.5\ngini = 0.08\nsamples = 24\nvalue = [1, 23]\nclass = bad"] ;
519 -> 520 ;
521 [label="age <= 46.5\ngini = 0.142\nsamples = 13\nvalue = [1, 12]\nclass = bad"] ;
520 -> 521 ;
522 [label="gini = 0.0\nsamples = 8\nvalue = [0, 8]\nclass = bad"] ;
521 -> 522 ;
523 [label="Sbal <= 1.5\ngini = 0.32\nsamples = 5\nvalue = [1, 4]\nclass = bad"] ;
521 -> 523 ;
524 [label="gini = 0.0\nsamples = 1\nvalue = [0, 1]\nclass = bad"] ;
523 -> 524 ;
525 [label="gini = 0.375\nsamples = 4\nvalue = [1, 3]\nclass = bad"] ;
523 -> 525 ;
526 [label="gini = 0.0\nsamples = 11\nvalue = [0, 11]\nclass = bad"] ;
520 -> 526 ;
527 [label="age <= 55.5\ngini = 0.245\nsamples = 14\nvalue = [2, 12]\nclass = bad"] ;
519 -> 527 ;
528 [label="Sbal <= 2.5\ngini = 0.444\nsamples = 6\nvalue = [2, 4]\nclass = bad"] ;
527 -> 528 ;
529 [label="gini = 0.0\nsamples = 2\nvalue = [0, 2]\nclass = bad"] ;
528 -> 529 ;
530 [label="Sbal <= 3.5\ngini = 0.5\nsamples = 4\nvalue = [2, 2]\nclass = good"] ;
528 -> 530 ;
531 [label="age <= 54.5\ngini = 0.444\nsamples = 3\nvalue = [2, 1]\nclass = good"] ;
530 -> 531 ;
532 [label="gini = 0.0\nsamples = 1\nvalue = [1, 0]\nclass = good"] ;
531 -> 532 ;
533 [label="gini = 0.5\nsamples = 2\nvalue = [1, 1]\nclass = good"] ;
531 -> 533 ;
534 [label="gini = 0.0\nsamples = 1\nvalue = [0, 1]\nclass = bad"] ;
530 -> 534 ;
535 [label="gini = 0.0\nsamples = 8\nvalue = [0, 8]\nclass = bad"] ;
527 -> 535 ;
536 [label="Sbal <= 1.5\ngini = 0.054\nsamples = 72\nvalue = [2, 70]\nclass = bad"] ;
488 -> 536 ;
537 [label="age <= 45.5\ngini = 0.18\nsamples = 10\nvalue = [1, 9]\nclass = bad"] ;
536 -> 537 ;
538 [label="age <= 40.5\ngini = 0.375\nsamples = 4\nvalue = [1, 3]\nclass = bad"] ;
537 -> 538 ;
539 [label="gini = 0.0\nsamples = 3\nvalue = [0, 3]\nclass = bad"] ;
538 -> 539 ;
540 [label="gini = 0.0\nsamples = 1\nvalue = [1, 0]\nclass = good"] ;
538 -> 540 ;
541 [label="gini = 0.0\nsamples = 6\nvalue = [0, 6]\nclass = bad"] ;
537 -> 541 ;
542 [label="age <= 42.5\ngini = 0.032\nsamples = 62\nvalue = [1, 61]\nclass = bad"] ;
536 -> 542 ;
543 [label="age <= 41.5\ngini = 0.077\nsamples = 25\nvalue = [1, 24]\nclass = bad"] ;
542 -> 543 ;
544 [label="gini = 0.0\nsamples = 19\nvalue = [0, 19]\nclass = bad"] ;
543 -> 544 ;
545 [label="Sbal <= 3.0\ngini = 0.278\nsamples = 6\nvalue = [1, 5]\nclass = bad"] ;
543 -> 545 ;
546 [label="gini = 0.32\nsamples = 5\nvalue = [1, 4]\nclass = bad"] ;
545 -> 546 ;
547 [label="gini = 0.0\nsamples = 1\nvalue = [0, 1]\nclass = bad"] ;
545 -> 547 ;
548 [label="gini = 0.0\nsamples = 37\nvalue = [0, 37]\nclass = bad"] ;
542 -> 548 ;
549 [label="age <= 37.5\ngini = 0.444\nsamples = 3\nvalue = [1, 2]\nclass = bad"] ;
487 -> 549 ;
550 [label="gini = 0.0\nsamples = 1\nvalue = [1, 0]\nclass = good"] ;
549 -> 550 ;
551 [label="gini = 0.0\nsamples = 2\nvalue = [0, 2]\nclass = bad"] ;
549 -> 551 ;
552 [label="Sbal <= 3.0\ngini = 0.444\nsamples = 3\nvalue = [1, 2]\nclass = bad"] ;
484 -> 552 ;
553 [label="gini = 0.0\nsamples = 2\nvalue = [0, 2]\nclass = bad"] ;
552 -> 553 ;
554 [label="gini = 0.0\nsamples = 1\nvalue = [1, 0]\nclass = good"] ;
552 -> 554 ;
}